{
  "test_accuracy": 0.10279999673366547,
  "train_accuracy": 0.10441666841506958,
  "lr": 0.01,
  "lam": 0.0001,
  "epochs": 300,
  "hidden_layer_num": 5,
  "node_per_hidden": 40,
  "hidden_activation": "sigmoid"
}
{
  "test_accuracy": 0.4041000008583069,
  "train_accuracy": 0.4089333415031433,
  "lr": 0.01,
  "lam": 0.0001,
  "epochs": 20,
  "hidden_layer_num": 5,
  "node_per_hidden": 40,
  "hidden_activation": "sigmoid"
}
{
  "test_accuracy": 0.9334999918937683,
  "train_accuracy": 0.9646499752998352,
  "lr": 0.01,
  "lam": 0.0001,
  "epochs": 300,
  "hidden_layer_num": 5,
  "node_per_hidden": 40,
  "hidden_activation": "sigmoid"
}
{
  "test_accuracy": 0.9344000220298767,
  "train_accuracy": 0.9549333453178406,
  "lr": 0.01,
  "lam": 0.0001,
  "epochs": 50,
  "batches": 20,
  "hidden_layer_num": 5,
  "node_per_hidden": 40,
  "hidden_activation": "sigmoid",
  "output_activation": "softmax",
  "loss_function": "<lambda>"
}
{
  "test_accuracy": 0.5314000248908997,
  "train_accuracy": 0.5335500240325928,
  "lr": 0.01,
  "lam": 0.0001,
  "epochs": 5,
  "batches": 30,
  "hidden_layer_num": 5,
  "node_per_hidden": 40,
  "hidden_activation": "sigmoid",
  "output_activation": "softmax",
  "loss_function": "<lambda>"
}
{
  "test_accuracy": 0.582099974155426,
  "train_accuracy": 0.5868833065032959,
  "lr": 0.01,
  "lam": 0.0001,
  "epochs": 5,
  "batches": 30,
  "hidden_layer_num": 5,
  "node_per_hidden": 40,
  "hidden_activation": "sigmoid",
  "output_activation": "softmax",
  "loss_function": "<lambda>"
}
{
  "test_accuracy": 0.7293999791145325,
  "train_accuracy": 0.7371666431427002,
  "lr": 0.01,
  "lam": 0.0001,
  "epochs": 5,
  "batches": 30,
  "hidden_layer_num": 5,
  "node_per_hidden": 40,
  "hidden_activation": "sigmoid",
  "output_activation": "softmax",
  "loss_function": "<lambda>"
}
{
  "test_accuracy": 0.6312000155448914,
  "train_accuracy": 0.6300666928291321,
  "lr": 0.01,
  "lam": 0.0001,
  "epochs": 5,
  "batches": 30,
  "hidden_layer_num": 5,
  "node_per_hidden": 40,
  "hidden_activation": "sigmoid",
  "output_activation": "softmax",
  "loss_function": "<lambda>"
}
{
  "test_accuracy": 0.9381999969482422,
  "train_accuracy": 0.9656166434288025,
  "beta_final": {
    "W1": [
      [
        1.3309123834360303e-30,
        2.999177351546751e-30,
        -4.203509117862507e-30,
        3.9687247159467816e-30,
        -3.200221868249243e-30,
        -4.277162020382205e-30,
        1.1447437947629687e-30,
        1.78754473087736e-30,
        3.330024280286251e-30,
        5.0669102827787656e-30,
        -7.194195638614399e-31,
        2.089060724575142e-30,
        7.943579870031972e-31,
        4.772290773377936e-30,
        3.746902349178251e-30,
        -2.9043439216161967e-30,
        2.7171053509652427e-30,
        3.5511650484104e-30,
        -4.742187961725694e-30,
        -8.833454484282421e-31,
        1.363838638479399e-31,
        -2.0540554432031348e-30,
        1.5450480515852115e-30,
        4.270335877667206e-30,
        5.86999843122665e-31,
        -7.406075203965934e-31,
        2.350208173395629e-31,
        6.256639211912675e-32,
        -1.2971184254826586e-30,
        -4.559976933393433e-30,
        -1.2350338920078209e-30,
        -1.22438833304813e-30,
        2.5086990422819693e-30,
        -5.3894877498195526e-30,
        2.463327593447575e-30,
        -4.637406464163453e-30,
        5.1867256948111875e-30,
        1.394102069679737e-30,
        4.8539468175962244e-30,
        3.92212210134911e-30
      ],
      [
        9.811690538686441e-31,
        -3.236654293802696e-30,
        4.2075911865649466e-30,
        2.5280956394660177e-30,
        4.1784472021447836e-30,
        -2.663948179867386e-30,
        3.244975665331941e-31,
        4.102117181770749e-30,
        3.5528509894281236e-30,
        -2.352406818029407e-30,
        4.306921775763103e-30,
        -4.991726792574749e-30,
        3.1107253707505177e-30,
        1.578596002080843e-30,
        -5.037700470674957e-31,
        3.903868648911349e-30,
        1.5219572047949469e-30,
        1.95691409468395e-31,
        2.383449460925018e-30,
        -4.30498832265487e-30,
        -2.7602553975952272e-31,
        3.849741365835646e-30,
        -1.1602358699113258e-30,
        5.04308630367178e-30,
        -9.61222419367959e-31,
        -9.814063156484141e-31,
        -4.826472223233325e-30,
        4.920328582259476e-30,
        3.8177205235610544e-30,
        -6.054757931311494e-31,
        -4.03428984117463e-30,
        -2.3371996827116893e-31,
        -3.294692117445167e-30,
        4.613460233643982e-30,
        -4.596485342901724e-30,
        -4.4860302513255776e-30,
        -1.4566941345954857e-30,
        4.2925901486378775e-30,
        5.201315366456305e-30,
        1.1615896632452808e-31
      ],
      [
        -3.840023318938528e-30,
        -4.1938245490445005e-30,
        2.3318080192628857e-30,
        7.897424319445805e-31,
        -2.6937244862087432e-30,
        -4.383116567267019e-31,
        4.7266262973117685e-30,
        -5.322682807190005e-30,
        -4.067302236444027e-30,
        2.0536916982312164e-30,
        -3.0839513710207086e-30,
        -4.587029102106421e-30,
        -4.41329329400404e-30,
        3.7170380218199045e-30,
        -2.0691220834360423e-30,
        6.700412779630585e-31,
        1.8017883369855957e-30,
        -1.4361850495578191e-30,
        -6.526123642827386e-31,
        -3.550937472704081e-30,
        4.582009271030669e-30,
        1.34729162768084e-30,
        4.556066392826666e-30,
        6.357705395009933e-31,
        3.846313812387744e-30,
        -4.632175608341842e-30,
        -4.478526647706313e-30,
        -2.5030410588330434e-30,
        2.4474478872820906e-30,
        1.4411364198425787e-30,
        -3.5262957256871155e-30,
        -2.9635427575190878e-30,
        -4.441253132434959e-30,
        -1.0661248517890128e-30,
        5.361534682236095e-30,
        4.201864554245933e-30,
        -6.3953146314678815e-31,
        -4.298103499261878e-30,
        -1.0564717862196083e-30,
        3.9021710469896656e-30
      ],
      [
        2.8596693058329697e-30,
        5.3517162011016425e-30,
        1.4817924436183106e-30,
        2.64638196844689e-30,
        3.3157084518051005e-30,
        4.898901483153591e-30,
        -5.258470722979727e-30,
        3.961838764079213e-30,
        2.0824002795438347e-30,
        2.785640997437393e-30,
        4.099046978605497e-30,
        3.7311289077020814e-30,
        -1.2586076318774033e-30,
        3.818000009097906e-30,
        -3.743996903301211e-30,
        -2.651615457375847e-30,
        -4.973906674374475e-30,
        -3.8551046293409335e-30,
        3.590410384925597e-30,
        3.789542513378623e-30,
        2.714172257461071e-31,
        2.9748444304056336e-30,
        4.721900998100559e-30,
        4.7781814106687766e-30,
        -4.9179960253092524e-30,
        -1.9596547832727792e-30,
        -5.205490722390426e-30,
        2.531392477942108e-30,
        1.962983783274308e-30,
        -2.1364555283257197e-30,
        1.8817492243104503e-30,
        -3.0393047790228052e-30,
        -4.7890113811822245e-30,
        -4.381144934102272e-30,
        1.0941134663216396e-30,
        -1.4205463667540275e-31,
        -4.5913413796225254e-30,
        -1.0799514865411249e-30,
        1.997697353968215e-30,
        -1.8907952645970903e-30
      ],
      [
        -3.544142927277232e-30,
        -3.9391031987015406e-31,
        -2.5706470303330155e-30,
        -1.4693084114939337e-30,
        3.0141751548304744e-30,
        3.4645721159977543e-31,
        -3.1423348840418693e-30,
        3.197349148134929e-30,
        -3.783700024336392e-31,
        1.4105085853934858e-31,
        9.502543047584025e-31,
        -4.1490226037131924e-30,
        1.001411160629352e-30,
        4.523898096540707e-30,
        -4.601031590813416e-30,
        -3.8133649878528396e-30,
        -1.6220558149821563e-30,
        2.8457025521542396e-31,
        -1.2589340431487396e-30,
        2.394621171156137e-30,
        -2.8506785608005925e-30,
        4.091643056907182e-30,
        -2.6753980590816834e-30,
        4.256347306813325e-30,
        7.826470540034691e-31,
        1.2956389012729396e-30,
        -7.390909446049365e-31,
        1.046523342429729e-30,
        -2.1812226790242435e-30,
        3.559739574403038e-30,
        -3.724372354252651e-30,
        -3.403076834331097e-31,
        2.638275007087235e-30,
        -1.63697387272912e-30,
        2.3813015976471956e-30,
        -3.1427151799742474e-31,
        -3.19557744304937e-30,
        4.804035703618502e-31,
        -4.495598963420367e-30,
        2.9510136804511874e-30
      ],
      [
        -3.3178284793766955e-30,
        4.080681431026442e-30,
        -1.5771035944530392e-30,
        -2.794701519814435e-30,
        -4.625261068451661e-30,
        -2.920192030493531e-30,
        1.8116607968206377e-30,
        -3.8942010072119944e-30,
        -4.3253238106868075e-30,
        3.4981865524538684e-31,
        5.22726012545127e-30,
        2.4347495390276718e-30,
        4.3773107536485336e-30,
        -2.4906940423301984e-30,
        -1.4546185877301258e-30,
        5.332350825047552e-31,
        -8.764776461934499e-31,
        -1.9195952523504286e-30,
        -4.909271412197901e-30,
        -4.560790187405106e-30,
        -5.297079599833615e-30,
        -5.746727630040099e-31,
        4.421416806324155e-30,
        3.2826332381175955e-30,
        -2.8329263391540224e-31,
        1.0262817999063096e-31,
        1.2894448924000387e-31,
        -8.946185332921759e-31,
        -3.653150938287742e-30,
        3.58371251215416e-30,
        3.3593510775878536e-30,
        -3.277661931448646e-30,
        2.5385998569849657e-30,
        4.2909677783546466e-30,
        5.125046283709417e-30,
        -4.438548555032587e-30,
        -4.478537180135696e-30,
        -2.764192081156357e-30,
        -8.676438531667944e-31,
        5.360803430710335e-30
      ],
      [
        -3.8570659181553935e-31,
        -6.6726786361150245e-31,
        1.5245585267735426e-30,
        4.7584304724676164e-30,
        5.637482827447559e-32,
        2.312305345468619e-30,
        -9.957098249487678e-31,
        -2.3713144095635134e-30,
        -3.690535044067621e-32,
        4.413493222083228e-31,
        -2.0030491446486386e-30,
        5.240775865457477e-30,
        -5.196880461369523e-30,
        3.4233773396511535e-30,
        -2.148366953641924e-30,
        -5.343139794318043e-30,
        -3.4989257033016655e-30,
        -1.2257493674272861e-30,
        -4.837659920187615e-30,
        -1.3991993893430947e-31,
        -9.345110499771617e-31,
        -2.304146662357528e-31,
        -2.9771783039095302e-30,
        5.0987445505899945e-30,
        -1.6996990036053817e-31,
        1.9049478404227983e-30,
        5.090009028891068e-31,
        3.99156692217196e-30,
        2.371539728320679e-30,
        -5.032956363554134e-30,
        4.970051052903778e-30,
        2.174726238964763e-30,
        3.190996212425797e-30,
        -6.7241464807714275e-31,
        -5.051644654862151e-32,
        -2.752043864258123e-30,
        -3.782931909307791e-30,
        5.347836129348448e-30,
        9.83406066638033e-31,
        -1.2103197345388447e-30
      ],
      [
        5.044727481864624e-30,
        -3.377765901890095e-30,
        -1.885056595215924e-30,
        -4.350729911150452e-30,
        -1.0975372581876186e-30,
        -4.193835457632076e-30,
        3.669900134114642e-30,
        4.01697565574295e-30,
        -1.983663644131262e-30,
        -2.364473596679016e-30,
        1.2735623650481125e-30,
        -3.756610239804178e-30,
        2.622270040243727e-30,
        3.9724298741405734e-30,
        9.170297562685691e-31,
        -4.6611533308410246e-30,
        4.1453603275533186e-30,
        2.0068039557238092e-32,
        -4.9368204858828686e-30,
        4.757064830150605e-31,
        2.7642883776535764e-30,
        1.450044221993562e-30,
        3.668139713774851e-30,
        3.283462666931536e-30,
        5.022715080611578e-30,
        1.0499766627138008e-30,
        1.853575163789038e-30,
        1.8625250956575546e-30,
        4.146768851904248e-31,
        5.2663553748477544e-30,
        4.42813423932159e-30,
        7.940710723420484e-31,
        -5.106661552062557e-30,
        5.2677133059218244e-30,
        -2.103736536446288e-30,
        -5.334953087421628e-30,
        7.990203737567506e-31,
        -4.794619147512483e-30,
        1.8183547199310563e-30,
        2.9270589863723905e-31
      ],
      [
        -3.652559241451312e-30,
        -4.620117105172463e-30,
        3.989190730871434e-30,
        3.28002119563052e-30,
        2.5464461407173824e-31,
        3.333202628931778e-31,
        2.1056188320403727e-30,
        4.7607280467059596e-30,
        4.420959021804171e-30,
        -2.273789003530028e-30,
        -1.3191303565379645e-30,
        2.3375587257062044e-30,
        -5.010381229645462e-30,
        -3.008334922737397e-30,
        -3.2580020235300134e-31,
        -2.8541281195027415e-30,
        -3.444933837175177e-31,
        1.154468048270259e-30,
        -5.357009123024977e-30,
        4.203539210517888e-30,
        5.179428602039475e-30,
        -2.2390995069604257e-31,
        -2.5117982096280253e-31,
        -4.659328211292164e-30,
        3.680533750051729e-30,
        1.3433493017468262e-30,
        -3.6924786534470446e-30,
        4.294173398469113e-30,
        -4.66497208880888e-30,
        -2.532294693366251e-30,
        -5.289463148756671e-31,
        3.100407163457644e-30,
        3.0191998759627253e-30,
        -2.441155701121009e-30,
        5.0174394619650876e-30,
        -4.645767332302886e-30,
        4.37224239816598e-30,
        -1.859535202266351e-30,
        4.4677504678143585e-30,
        -4.564070286841641e-31
      ],
      [
        -5.154797387451893e-30,
        -3.51392538737635e-30,
        5.388810665073479e-30,
        -4.6573650416867426e-32,
        -1.2285580466093669e-31,
        4.179784068360087e-30,
        4.476653379908842e-30,
        -4.8063319613031726e-30,
        5.1740672193251486e-30,
        -2.7885334658568005e-30,
        4.580750645719357e-30,
        4.56593339836792e-30,
        -1.0117592724985108e-30,
        1.9338478862552787e-30,
        -5.285941367681607e-31,
        -1.4587250126755144e-30,
        -2.013939676631041e-30,
        3.8040787705604396e-30,
        4.306244691017029e-30,
        2.5220041337005086e-30,
        5.288250978982103e-31,
        -4.242506566129003e-30,
        -4.056985533783922e-31,
        1.5882715431022354e-31,
        -2.160356619862119e-30,
        -2.6562753050616026e-30,
        3.255128551099315e-30,
        4.578849918373851e-30,
        3.9626463757180016e-30,
        3.257349389066437e-30,
        5.2751386686370986e-30,
        -3.1206636582692058e-30,
        4.878612826816591e-31,
        -3.8001859094287085e-30,
        -6.189362378830933e-31,
        4.0038699281663105e-30,
        4.405328708520157e-31,
        -1.2664230706380544e-30,
        3.0193371737029014e-32,
        2.3734630251577204e-30
      ],
      [
        4.01817071031977e-30,
        1.596269418586134e-30,
        -5.639512200894819e-31,
        4.774124544565219e-30,
        -1.945582141062927e-30,
        5.3348891405289435e-30,
        -1.9487473241717252e-30,
        4.461178608037329e-30,
        3.013757054999774e-30,
        3.928593903046997e-30,
        1.6575333629645498e-30,
        -5.286293075591373e-31,
        3.0235806142698218e-30,
        4.130971524382869e-30,
        3.4145455214550074e-30,
        -3.7746285933717745e-30,
        1.987024241420941e-30,
        -2.2423666289393272e-30,
        4.257379861051087e-30,
        3.4303505602193275e-30,
        3.4451621651978805e-30,
        3.1539117166460556e-30,
        -4.5785100594471416e-31,
        -4.735805685677566e-30,
        -3.46892031662122e-30,
        2.4232626082314364e-30,
        -4.841241698494345e-30,
        4.9740341920016525e-30,
        2.5938597523775734e-30,
        -2.4589754431630904e-30,
        9.098083653330496e-31,
        3.775994799926074e-30,
        -5.2132967571962706e-30,
        2.2649293496276544e-30,
        -4.7673251090818704e-30,
        2.6836182440572096e-30,
        -7.109170721626202e-31,
        -6.617485884959736e-31,
        5.349645074095042e-30,
        2.621359549339354e-30
      ],
      [
        3.4756971826130325e-30,
        -8.074585424046933e-31,
        4.7214883525636464e-30,
        -1.136858766736749e-30,
        -4.286260534736666e-30,
        6.940444964486574e-31,
        2.239986299898686e-30,
        4.502778318677901e-30,
        2.862611615212852e-30,
        -1.2126198478449857e-30,
        2.992781345724605e-31,
        -4.676393003842373e-30,
        4.4197906744590014e-30,
        1.2265266983315979e-30,
        1.343095959204337e-30,
        1.932041386536935e-30,
        3.82675998107933e-30,
        -2.3021058160854042e-30,
        -4.813128763679175e-30,
        3.759409985229193e-30,
        -8.794989487937074e-31,
        -4.330442195208932e-30,
        -2.640203570138968e-30,
        1.7498258443063667e-31,
        -1.589773354684846e-30,
        5.2091736872508744e-30,
        -8.540086829345443e-31,
        1.3112324450936597e-30,
        -4.910340453780313e-30,
        -9.723708077911575e-31,
        4.3639270451678114e-30,
        -4.209715728034849e-30,
        2.791377786027598e-31,
        2.463859669210531e-30,
        4.080681431026442e-30,
        -2.161003988111004e-30,
        6.343843025229556e-31,
        -2.664103909358983e-30,
        -5.497247291789941e-31,
        -4.88554448190452e-31
      ],
      [
        -4.17821247538086e-05,
        -8.283660463348497e-06,
        0.00013912242138758302,
        -0.00020164002489764243,
        8.170811634045094e-05,
        2.3683413019170985e-05,
        -9.327800944447517e-05,
        -2.9647821065736935e-05,
        0.00010581567039480433,
        1.1897782314918004e-05,
        -0.0007721651927568018,
        3.4545435482868925e-05,
        1.3703338481718674e-06,
        0.00031887469231151044,
        0.0003117912565357983,
        0.00028856805874966085,
        0.0002763607772067189,
        2.6585664727463154e-06,
        3.0970039688327233e-07,
        -7.924395504232962e-06,
        -8.519185030309018e-06,
        -2.9599286790471524e-05,
        0.00034691509790718555,
        -0.0003826754109468311,
        0.00029088123119436204,
        -4.48441096523311e-05,
        -0.00023161851277109236,
        -0.00036206573713570833,
        -1.567546496517025e-05,
        -1.2706060488199e-06,
        4.079974314663559e-05,
        -0.0003292987821623683,
        2.45181780655912e-07,
        2.247898692075978e-06,
        -4.405294617981781e-08,
        -2.1188023310969584e-05,
        2.0317161215643864e-06,
        -3.6689195326289337e-07,
        1.1785354217863642e-05,
        0.0009036088013090193
      ],
      [
        1.3616659998660907e-05,
        -1.932851409947034e-05,
        0.00034294193028472364,
        -0.00030126122874207795,
        0.00038109449087642133,
        1.354507367068436e-05,
        -0.00012698549835477024,
        -2.7171521651325747e-05,
        0.00021655249292962253,
        -0.00034713101922534406,
        0.0006696979398839176,
        -0.00014958000974729657,
        3.0107362363196444e-06,
        -0.0008811297593638301,
        -0.0011913480702787638,
        2.097154538205359e-05,
        -0.0001375092106172815,
        3.0035744202905335e-05,
        5.977345267638157e-07,
        -1.829523353080731e-05,
        -4.237690518493764e-05,
        -0.0002829298027791083,
        -0.00047208520118147135,
        0.0003727395087480545,
        -2.985506216646172e-05,
        0.00032091239700093865,
        0.0010784033220261335,
        0.00033554420224390924,
        0.00027112351381219923,
        6.09415337748942e-06,
        -8.56823317008093e-05,
        0.0008003615075722337,
        3.272064532211516e-06,
        8.1643402154441e-06,
        -1.9730960332253744e-07,
        -3.894491965183988e-05,
        4.33646482633776e-06,
        -8.495561587551492e-07,
        0.00017486857541371137,
        -0.0012269251747056842
      ],
      [
        2.990228313137777e-05,
        -4.7374087444040924e-06,
        -2.5825229386100546e-05,
        5.1887273002648726e-05,
        -2.3664959371672012e-05,
        4.5332668378250673e-05,
        -2.0910234525217675e-05,
        -1.2905589755973779e-05,
        2.0891036911052652e-05,
        5.4054020438343287e-05,
        -1.767390585882822e-06,
        4.147634626860963e-06,
        3.3035512103651854e-08,
        -5.0994694902328774e-05,
        0.0005002126563340425,
        -0.0003644259413704276,
        2.1543002731050365e-05,
        2.8153346647741273e-05,
        -8.79451818036614e-08,
        -2.4453950118186185e-06,
        -3.334941357024945e-05,
        -2.9418131930469826e-07,
        -5.131795478519052e-05,
        -2.8413073778210673e-06,
        -1.0013540077125072e-06,
        0.00011208324576728046,
        -3.6250444281904493e-06,
        1.9635448552435264e-05,
        -4.7007099055917934e-05,
        9.758635314938147e-06,
        1.2801775483239908e-05,
        -7.035953331069322e-06,
        3.052731472052983e-06,
        3.8081575439719018e-06,
        -1.1229933249978785e-07,
        -4.0734883555160195e-07,
        -6.730225976525617e-08,
        -5.3335543981347655e-08,
        3.3081931178458035e-05,
        9.635775313654449e-06
      ],
      [
        4.447439096111339e-06,
        -2.080314658314819e-07,
        -1.1907685575351934e-06,
        3.241495960537577e-06,
        -1.077754859579727e-06,
        4.825678388442611e-06,
        -2.7753026188293006e-06,
        -5.634898343487293e-07,
        3.868624844471924e-06,
        3.887626007781364e-06,
        -7.946238866907152e-08,
        1.7488136450083402e-07,
        1.3766392470415667e-09,
        -5.085667908133473e-06,
        -2.4518247300875373e-05,
        1.705706017673947e-05,
        1.0156036296393722e-06,
        1.3260141713544726e-06,
        -3.6662683999821866e-09,
        -1.0257821259074262e-07,
        -1.6045668189690332e-06,
        -1.2268903226697603e-08,
        -3.908463440893684e-06,
        -1.1839305358307683e-07,
        -4.185801572020864e-08,
        -1.1004524822055828e-05,
        -1.7224880366484285e-07,
        1.344112661172403e-06,
        -2.632857331263949e-06,
        4.2029668634313566e-07,
        5.571002930082614e-07,
        -3.0461546884907875e-07,
        1.2849712049955997e-07,
        1.6041354911067174e-07,
        -4.680502652121277e-09,
        -1.6991794637988278e-08,
        -2.80127077090242e-09,
        -2.2226418483484167e-09,
        5.16640557179926e-06,
        5.036047241446795e-07
      ],
      [
        2.7731773718949465e-30,
        -9.769019153356112e-31,
        -5.3541292559050105e-30,
        3.1633925958029517e-31,
        -4.16416898948286e-30,
        4.692286815940067e-30,
        1.7805173435295e-30,
        -5.712542373527225e-31,
        -3.091575533340594e-31,
        9.612790311758946e-31,
        -3.438477834121365e-30,
        -4.187987326216961e-30,
        3.829316728312142e-31,
        4.63883699376863e-30,
        -8.738597732543946e-31,
        -4.353089175332326e-30,
        -2.7656222346033415e-30,
        -2.7669171591802073e-31,
        1.5507071635087142e-30,
        -5.404754882368936e-30,
        3.90527322360126e-30,
        -6.275551505424184e-31,
        3.6049278341978006e-30,
        4.6851424433944136e-30,
        -2.0205675839787172e-30,
        3.881394325398204e-30,
        1.1856213757139436e-30,
        -4.786024685135655e-30,
        2.599159821306561e-30,
        2.570921061576079e-30,
        1.7528573031778152e-30,
        2.297044983766696e-30,
        3.240239081374964e-30,
        -2.820763264007194e-30,
        4.7216587522247416e-30,
        4.904400163608094e-30,
        -8.988239818816777e-31,
        -6.903956679441569e-31,
        -1.1822913412773862e-30,
        8.370008783504629e-32
      ],
      [
        4.316677062321255e-30,
        3.675310041235771e-30,
        4.996182762520298e-30,
        4.8053595923761724e-30,
        -4.9052702175067984e-30,
        -2.4724530031127823e-31,
        -4.0782747709123425e-30,
        -2.2130941864965064e-30,
        -1.2316777145769012e-30,
        -1.2949809065551233e-30,
        -6.722039994894754e-31,
        2.185099177274611e-30,
        -3.700476528930943e-30,
        -4.269018947836093e-30,
        -1.0205275199601644e-30,
        3.5685044364409615e-30,
        4.455000962045792e-30,
        -2.234373643511928e-30,
        2.8578804855496624e-30,
        5.61631264438699e-31,
        2.7925747213953794e-30,
        3.586770302099067e-30,
        -4.106732266631625e-30,
        2.9151155876098438e-30,
        -4.002872356640429e-30,
        -4.3399435749873064e-30,
        -4.324279219386893e-30,
        -5.0079241643335994e-30,
        -1.971455430001362e-31,
        -1.1125176641549498e-30,
        -4.486838239122559e-30,
        1.8161951957492737e-32,
        3.057987051799746e-30,
        -3.733435885895231e-30,
        -4.823146608655527e-30,
        -2.6810103393102494e-30,
        -3.849942234310314e-30,
        -4.693949058991678e-30,
        5.164337887682263e-30,
        4.942910487015609e-30
      ],
      [
        -5.0909862878745674e-30,
        -4.620275843929598e-30,
        -1.1191191463896197e-30,
        -9.21318335818561e-31,
        3.248358079796771e-30,
        2.539594043087117e-30,
        4.838077079622835e-30,
        -4.3835760444988684e-30,
        -1.6633754758485885e-30,
        3.57994453554226e-30,
        3.81524991655427e-30,
        -5.2363206478283124e-30,
        4.8191518086536924e-30,
        5.4220747101735e-30,
        -4.6685941160421816e-30,
        2.415476509809782e-30,
        -3.6014024796199105e-30,
        2.923100109477917e-30,
        -4.8377618590577186e-30,
        -3.340485615771281e-30,
        -9.21355481440047e-31,
        1.3500069255916914e-30,
        -1.7396725823808002e-30,
        3.9159959890299125e-30,
        -2.922023168573468e-31,
        -4.68651805390352e-30,
        -4.989514982404242e-30,
        -3.990286103527304e-30,
        -3.435564488922287e-30,
        7.919199176800437e-31,
        -2.5413702620709836e-30,
        4.50304238172887e-30,
        -4.092369418376442e-30,
        -2.732228791085182e-30,
        -1.7670305677040978e-30,
        1.775500897877479e-30,
        1.9523674706140656e-30,
        1.3638218054002952e-30,
        3.715583794248615e-30,
        4.641312866990106e-30
      ],
      [
        5.788247971302103e-31,
        7.279667243455908e-31,
        -2.1694163899227767e-30,
        -4.53643676564251e-31,
        -2.1822516597591793e-30,
        -4.5585219535057594e-30,
        -9.248466056224412e-31,
        1.6634194863570833e-30,
        2.76634332985791e-30,
        -5.0223283899899315e-30,
        1.8228089971647402e-31,
        4.524821188744521e-30,
        5.180566292491975e-31,
        -1.9986802553245985e-30,
        -4.208160313909841e-30,
        4.743975465455329e-30,
        -4.536934987168163e-30,
        -1.5953961673427953e-30,
        3.0695796830480073e-30,
        3.6022685838575964e-31,
        -3.603917473293382e-30,
        2.232182333962899e-30,
        -3.0438472653525748e-30,
        -4.153913412528998e-30,
        3.608198905837721e-30,
        1.5273593066335858e-30,
        -3.304370291573905e-30,
        2.5829509767228464e-30,
        -2.534161566474453e-30,
        2.7069528413560608e-30,
        1.1046433566372095e-30,
        1.4480661000999982e-30,
        1.7899869379406283e-30,
        -1.035298499853953e-30,
        -3.96673577950519e-31,
        4.260612188397204e-32,
        -3.562564146268742e-30,
        4.844767053072235e-30,
        3.11246435007335e-30,
        -4.5349059898790954e-30
      ],
      [
        -2.713027231923822e-30,
        1.38184072320518e-30,
        -3.725600134592198e-30,
        2.6057226532869757e-30,
        -3.8673914605330164e-30,
        -2.0603880663698847e-30,
        1.2516663847555717e-31,
        -2.4523514854764328e-30,
        1.5962381974561763e-30,
        -4.7234470082707606e-30,
        -2.092365838531462e-31,
        5.355053852741593e-30,
        -4.551909468643966e-30,
        -2.2393167383164577e-31,
        -2.4961782406942987e-30,
        2.6333296553335515e-30,
        -3.677993553779376e-30,
        8.524947402502333e-31,
        -2.485088156790901e-31,
        3.769760730205697e-30,
        1.7058947051901477e-30,
        -2.1585732538725996e-30,
        -2.1053502550910968e-30,
        3.846072318828311e-30,
        -2.7071401681358078e-30,
        -2.4032060414990623e-30,
        -5.186456365545527e-30,
        -4.7686533236587515e-30,
        2.8096624595953167e-30,
        -3.513313001839346e-30,
        -1.584812768524376e-30,
        -1.217439280643809e-30,
        -5.557796535603057e-31,
        5.16557243886927e-30,
        4.7340099064677016e-30,
        -3.677369131180219e-30,
        3.01981564692346e-30,
        -4.367921845169646e-30,
        2.03826620308289e-30,
        -1.0038359703762282e-30
      ],
      [
        -3.255987696410444e-30,
        -3.366865589794694e-30,
        -2.5511582743918626e-30,
        4.9439693723268294e-30,
        -3.2889918161996115e-31,
        1.1808338223219146e-30,
        5.0051323182306224e-30,
        3.7135901558296206e-30,
        -2.8716127045955164e-30,
        -1.6397911095100746e-31,
        1.0048343882580426e-30,
        -1.897642472170856e-30,
        -4.226553321036931e-30,
        4.299309462426274e-30,
        -1.5948644677380313e-30,
        -4.076002211193785e-31,
        1.750811190691e-30,
        -2.612594687301431e-30,
        -1.5339660550829474e-30,
        -1.0204380883499538e-30,
        -1.0235936794248492e-30,
        -4.467877233125151e-30,
        4.7427243633078615e-30,
        4.135868351729751e-30,
        -2.7937729733168336e-30,
        3.7817135329230506e-30,
        1.695282154111828e-30,
        4.580146347583486e-31,
        1.1195982778870148e-30,
        5.692597525777953e-31,
        -5.308887957805139e-30,
        5.034576476888211e-30,
        -5.3719098774950964e-30,
        -4.449290128370853e-30,
        4.532387610781894e-30,
        -5.603685013872717e-31,
        -9.670219323367239e-31,
        4.754888943087459e-30,
        -3.0691113660986397e-30,
        -2.4409636723638587e-30
      ],
      [
        3.332301918140404e-30,
        -1.3949048853015746e-30,
        4.55370524785383e-30,
        -1.3358085525060753e-30,
        3.837634714417657e-30,
        -2.332853362879185e-30,
        4.577022918034029e-30,
        1.1148826647492561e-30,
        2.4358165117400262e-30,
        3.829573268199266e-30,
        5.403086244628057e-30,
        -4.352130348100247e-30,
        -3.1474690672080688e-30,
        3.4213972429270804e-30,
        -2.9170422698706156e-30,
        -1.896041166746392e-30,
        -3.3226188539551665e-30,
        -3.873758314095262e-30,
        -4.6587116880150446e-30,
        -1.1838112084532254e-31,
        1.4408430164526135e-30,
        4.56401536774557e-30,
        3.4117122979508815e-30,
        1.6791035902625907e-30,
        2.810449006375339e-31,
        2.397795005903357e-31,
        -1.745177657524571e-30,
        -2.8876876368627853e-30,
        -3.1305257737539606e-30,
        -5.7274297743815194e-31,
        3.78263925823421e-30,
        -2.653981304326086e-31,
        -2.898227401330902e-30,
        4.14983661004125e-30,
        -4.124016359407924e-30,
        -5.0329969886388985e-30,
        1.263259016003833e-30,
        1.578800255979242e-30,
        -4.376667899297956e-30,
        -4.1785483886985024e-30
      ],
      [
        4.222645037419317e-30,
        -9.818505584734769e-31,
        3.443664303276289e-30,
        2.050171797947114e-30,
        -1.4327199743302392e-30,
        2.844654011193306e-30,
        3.700639029270001e-30,
        -7.344454849700349e-31,
        2.829646239717488e-30,
        4.844975444710749e-30,
        -3.682903922821179e-30,
        -4.274615429420584e-30,
        5.187191002495017e-30,
        -2.5209080087282538e-30,
        3.0952679021558488e-30,
        -3.8553690685500945e-30,
        -2.3011911874409164e-30,
        3.985518298440369e-31,
        2.9263425930952254e-30,
        -3.2041771716408896e-30,
        -2.588182584860842e-30,
        -4.0464587467734384e-31,
        8.087826192414595e-31,
        6.010306377336279e-31,
        6.149389928530091e-31,
        3.030552706363419e-30,
        1.6906243752961298e-30,
        1.8831532347630725e-30,
        2.7790759085078247e-30,
        5.1377280810033765e-30,
        4.019445134275158e-30,
        2.6340375850513907e-30,
        3.306476025134194e-30,
        -3.581856923791726e-30,
        3.3853086259613555e-30,
        -2.9447356002223157e-31,
        -1.1717056855098132e-30,
        4.311254741979782e-30,
        -4.219750500129852e-30,
        -5.184023374357969e-30
      ],
      [
        -2.137603563128507e-31,
        -3.61128528380524e-30,
        -1.2207540806735798e-30,
        -4.9920149297500225e-30,
        1.7582198143667184e-32,
        3.276396911448065e-30,
        -1.4066127149962165e-30,
        -4.61690546652692e-30,
        -4.434657574691817e-30,
        -3.505051815620863e-30,
        8.61603410875885e-31,
        3.184244549032866e-30,
        -2.657955791785538e-30,
        -4.1116828846e-30,
        -1.3861117173596836e-30,
        1.1662138699423196e-30,
        3.3610652304699966e-30,
        -1.4999535492198708e-30,
        3.453722773337405e-30,
        3.904179731736351e-30,
        2.5671030559246084e-30,
        3.980769677421239e-30,
        -4.2744021477255705e-30,
        1.2298988624856888e-30,
        -4.874843533651018e-30,
        4.238945476522848e-30,
        2.9103874672121924e-30,
        6.92967555544208e-31,
        -1.9026423668624176e-30,
        2.735506633572563e-30,
        -1.4881220575195224e-30,
        -5.128397853202482e-30,
        -4.2538654150607726e-30,
        5.145236950837333e-30,
        -3.924934636152661e-30,
        1.748416755718149e-30,
        4.665080798526444e-30,
        -3.8380774526099505e-30,
        3.663699542473377e-30,
        -2.1103475166753125e-30
      ],
      [
        1.5189079724489139e-31,
        -4.644576791624373e-30,
        1.3535004948023352e-30,
        -4.547285355986475e-30,
        3.4299902006711394e-30,
        4.8893982225842556e-30,
        7.348247464673842e-31,
        -4.084009678711586e-31,
        1.137346267753922e-31,
        9.970135892431518e-31,
        2.0063399645936527e-30,
        -3.255479506692697e-30,
        -4.627202797040123e-30,
        4.1723556963792745e-30,
        1.884206101543217e-30,
        -2.927767480327518e-30,
        3.326410528533179e-30,
        -4.356016438384518e-30,
        -1.9054123957902433e-31,
        -3.812175199490711e-30,
        -4.6100642774842305e-30,
        1.2665338492256759e-30,
        -3.477856330636623e-30,
        1.6199873210829014e-30,
        6.642605729039068e-31,
        -4.1366244296961996e-30,
        4.154118418743781e-30,
        6.50149844677088e-31,
        3.346215257355833e-30,
        4.035216318802174e-30,
        -4.386563492861822e-30,
        -8.715961472929032e-33,
        -2.7937141045597444e-30,
        1.2730537991721728e-30,
        -8.474670098524442e-31,
        -3.0198263674319396e-30,
        -8.584901375976192e-31,
        3.834781366450245e-31,
        -2.4689712828851948e-30,
        -4.0225296314517154e-30
      ],
      [
        5.197961163855895e-30,
        7.480714393265746e-31,
        -1.7424424232295298e-30,
        -4.959491163972375e-30,
        -1.2971688306804218e-30,
        6.692505934429214e-31,
        2.3645495806338532e-30,
        -1.219214653271743e-30,
        3.1049780497309293e-30,
        -1.1512039355568958e-31,
        4.2320907457852366e-30,
        2.9690730352617404e-32,
        5.365932347661843e-31,
        -2.777622621332016e-30,
        4.4162596775082274e-30,
        4.4071581538882286e-30,
        4.9057377821397815e-30,
        2.000357732782996e-30,
        -8.395958056397901e-31,
        5.302401109779561e-30,
        2.7726889304822928e-30,
        -2.3788101138607408e-30,
        -4.9738668016060954e-30,
        3.547664896431392e-30,
        -4.717948327816258e-30,
        1.6376723984921525e-31,
        4.074040546221133e-31,
        3.996485942852185e-30,
        8.750594357690698e-31,
        2.64255079725869e-30,
        -4.60645579194585e-30,
        4.790326054064184e-30,
        9.07869175812385e-31,
        -3.328186371358853e-30,
        -1.7822115600274533e-30,
        2.577884313952158e-30,
        4.451800608146017e-30,
        4.425583886778046e-30,
        3.4691140380902355e-30,
        -4.327753416450635e-30
      ],
      [
        -2.8836597349400316e-31,
        -2.0603963418501144e-30,
        -7.734573212873846e-31,
        3.027086032463522e-30,
        -3.8814108763586634e-30,
        -4.837279248097045e-30,
        -8.123138042713297e-31,
        -4.5954373661780786e-30,
        -2.0653826948467545e-30,
        -4.618932206866834e-30,
        -7.464700398625623e-31,
        -8.60764295988494e-31,
        1.8412990531054344e-30,
        -1.135513531001668e-30,
        -1.415033486327767e-30,
        7.2259556151826555e-31,
        -5.899050068810612e-31,
        2.6278116027321475e-30,
        3.368367965614593e-30,
        -6.025033910958861e-31,
        1.7167788424832815e-30,
        2.9929592685495454e-30,
        4.0936882289985166e-30,
        1.52683936197233e-30,
        1.3088189200925514e-31,
        4.8664540774889736e-30,
        -3.1363594230786734e-30,
        4.4763362785527645e-30,
        -2.9283467639436033e-30,
        -3.817878510001805e-30,
        -4.0828390744172634e-30,
        1.7696320777617896e-30,
        4.0756157086512345e-30,
        2.8416050609659174e-30,
        -2.991886653464307e-30,
        -2.111686075602481e-30,
        1.3822292005782397e-30,
        -4.9677414416032826e-30,
        2.6396566361274174e-30,
        -2.5454282566491183e-30
      ],
      [
        -2.5188350009306917e-30,
        5.05316696706624e-30,
        2.1858588287438866e-30,
        1.9120562898610909e-31,
        3.387358311950997e-30,
        -4.228142965557435e-30,
        5.2090281140304686e-30,
        -1.0560804876601065e-30,
        -1.1543617835809448e-31,
        4.12330429194997e-30,
        2.5589477582372475e-31,
        4.0011811494080136e-30,
        -6.181073733064415e-31,
        4.8584298709316164e-30,
        1.204364774197127e-30,
        2.8825472470864134e-31,
        4.4973236487318936e-30,
        3.853862931148273e-30,
        -4.915037541127103e-30,
        4.318349837802249e-30,
        -2.729715866281768e-30,
        3.291282619590494e-30,
        -2.213677043615418e-30,
        -9.385839968434388e-31,
        3.163968870153499e-30,
        5.362106818846527e-32,
        3.756521090312612e-30,
        -1.89687604985412e-30,
        -2.1562828266399094e-30,
        4.4181284314073906e-30,
        -2.7506082565173508e-30,
        -1.4890000107402645e-30,
        1.8649904364496472e-31,
        4.637508026875364e-30,
        -1.5068877433755974e-30,
        -4.820611678597866e-30,
        1.2486393457428822e-30,
        -4.970412164768351e-30,
        -9.610898236051862e-31,
        1.0462934157347082e-30
      ],
      [
        1.35727843960633e-30,
        -5.141860554903579e-30,
        -3.973919084423743e-30,
        -5.2445878525778715e-30,
        1.6774721921827455e-30,
        -1.0222077245654557e-30,
        -2.6337532094580398e-30,
        2.3352987672870875e-30,
        -4.443734648029319e-30,
        -3.127102734204366e-30,
        -3.045335535240264e-30,
        9.678221148512156e-31,
        1.5921203937254718e-30,
        -3.593626537469447e-30,
        -4.285791841629106e-30,
        2.6729139103799777e-30,
        -1.2225021818325747e-30,
        -4.4127689294840255e-30,
        4.064400175990717e-30,
        4.082482476450998e-30,
        6.208716658218352e-31,
        -9.873038178262636e-31,
        1.2532424875811543e-30,
        1.1185729646944536e-30,
        -2.074516568071288e-30,
        -1.3922031290856447e-30,
        3.7475459558452135e-30,
        -2.9392640031576562e-30,
        3.4607614454310326e-30,
        1.8097664641644006e-30,
        -4.173349882481426e-30,
        -1.7051734218564832e-30,
        2.6988851885274973e-31,
        -5.800482516505462e-31,
        -4.1004470393971006e-30,
        -4.301648790223958e-30,
        -2.0683748451871116e-30,
        2.679190109817888e-30,
        -3.919574758071104e-30,
        -3.334869573960792e-30
      ],
      [
        1.8251379806121374e-30,
        -4.560812004580257e-30,
        9.101805738642939e-32,
        3.8683751142057845e-31,
        -2.085791721805279e-30,
        -2.6077550359997734e-30,
        -1.3728558086247828e-30,
        -1.8118073104365242e-30,
        -3.0439907697029232e-30,
        4.238763415957792e-30,
        -3.594256602441488e-30,
        5.4255778714180465e-30,
        3.4435597312988396e-30,
        8.526207532446414e-31,
        4.400915808687622e-30,
        2.383606506970288e-30,
        -4.940199138765776e-30,
        4.310042196047022e-31,
        4.3073016955372886e-30,
        3.5193367991302475e-30,
        1.7401446609120904e-30,
        -4.07619499226732e-30,
        5.12678526303225e-30,
        4.385726917042229e-30,
        1.0696350659996643e-30,
        1.2970171448893917e-30,
        1.36012605116131e-30,
        -4.559591747404556e-30,
        3.126792591774845e-30,
        -3.106797526906906e-30,
        -1.8400124040087984e-30,
        -4.082985776112246e-30,
        8.398297760353778e-31,
        -1.7337349253159267e-30,
        -8.588818123153132e-31,
        -4.573456938371375e-30,
        4.491714753927058e-30,
        -9.760445567758954e-31,
        -1.4962006189356615e-30,
        4.712994700582345e-30
      ],
      [
        9.245248963285081e-31,
        4.635205186422329e-30,
        -9.589447815138057e-31,
        -3.078515508984314e-30,
        1.4225865547493146e-30,
        9.596993548474855e-31,
        1.687072501565685e-30,
        -4.689045836955528e-30,
        -4.104015652167101e-30,
        1.645959915784094e-30,
        -4.849974963244118e-31,
        4.3862339782854e-30,
        1.0905763568002413e-30,
        4.139455772409364e-30,
        -2.5692862780725036e-30,
        -3.315523005816315e-30,
        -9.598460565424682e-31,
        -2.3507009406274937e-31,
        -3.837730634756684e-30,
        -4.5336153911214406e-30,
        -2.2197805864430797e-30,
        9.975805536784404e-31,
        -6.031511355029632e-31,
        -3.8592446264049815e-30,
        1.622209851761888e-30,
        4.77533314083696e-30,
        4.7011058447576764e-30,
        -2.5401165268161706e-30,
        4.6057899919455445e-30,
        -3.916874318408847e-30,
        -1.40117986222536e-32,
        2.1897842275592485e-30,
        -3.2487846431867976e-30,
        -8.238882858868143e-31,
        -1.6414320996238225e-31,
        1.1825160957972634e-30,
        4.89696652541259e-30,
        4.247381200142541e-30,
        1.025154453804097e-30,
        -1.3710929432567416e-30
      ],
      [
        -2.637686975504039e-07,
        -1.5696119959329735e-09,
        -4.893060534527649e-08,
        -1.1357978735304641e-07,
        -2.7276345626603415e-09,
        -9.707854520257797e-10,
        1.6487398113440577e-08,
        -3.172793583416933e-09,
        -5.4988928965826744e-09,
        -5.419686033292237e-08,
        -1.2233772395120468e-07,
        -6.547391251388035e-08,
        2.6413764508959048e-09,
        3.693934047532821e-11,
        1.4057249586585385e-07,
        -4.264508106643916e-07,
        -7.92382977010675e-08,
        -7.093392540014065e-11,
        7.1681895974506915e-09,
        -9.223858113936723e-14,
        4.066078723719002e-11,
        2.655430009212978e-08,
        -5.205664876939409e-08,
        3.1845351600168215e-07,
        1.4626453381794136e-09,
        2.3358268208539812e-07,
        1.212230138492032e-08,
        2.5857414698293724e-07,
        -4.636059980356322e-09,
        -1.0636652669759883e-10,
        6.3069869327136985e-09,
        5.001692948702896e-10,
        -2.7214383524487573e-10,
        -1.9609793788788465e-09,
        9.244955911924535e-10,
        -2.9069251894497938e-08,
        2.63157162727623e-09,
        -5.3438791169924116e-09,
        -1.3860135084087233e-07,
        5.800876010653155e-07
      ],
      [
        3.2648079013597453e-06,
        4.661575303543941e-08,
        8.84609676177206e-07,
        -2.4704222596483305e-05,
        0.00011391483712941408,
        -1.4161294359382737e-08,
        -1.5057642031024443e-06,
        -4.959068533594291e-08,
        8.024046110222116e-06,
        -2.582265551609453e-06,
        4.358421574579552e-05,
        7.690048278163886e-07,
        -6.669044068985386e-06,
        9.181295172311366e-05,
        2.3775366571499035e-05,
        -8.32413206808269e-07,
        3.938110921808402e-07,
        1.5498534011726406e-08,
        2.0623570406996805e-08,
        5.871964248171935e-09,
        6.665682121820282e-07,
        -3.2811899473017547e-06,
        3.022711825906299e-05,
        -2.2684671421302482e-06,
        1.3037673340932088e-07,
        3.369145815668162e-07,
        -2.6027823878393974e-06,
        -2.7214759029448032e-05,
        5.42307534487918e-05,
        2.6684475074034708e-08,
        -2.042679989244789e-05,
        -5.92139394939295e-06,
        -4.3204151367604027e-10,
        -5.0578660193423275e-06,
        2.1938335592608382e-09,
        9.402023692928196e-08,
        -1.4696784944590036e-07,
        -1.8213537344990982e-08,
        2.8963693239347776e-06,
        -4.964480103808455e-05
      ],
      [
        -3.069872036576271e-05,
        7.957615162013099e-05,
        0.0004366088833194226,
        -0.0065646241419017315,
        0.016816841438412666,
        -0.00036445498699322343,
        -0.00012193377187941223,
        -3.032318545592716e-06,
        -0.0017842649249359965,
        0.0006617511971853673,
        0.016902020201086998,
        0.000500734313391149,
        0.0020481147803366184,
        0.01444761361926794,
        0.0024658609181642532,
        0.0006470252992585301,
        0.0005001631216146052,
        8.118906862364383e-07,
        -5.074473108379607e-08,
        1.6906919881876092e-06,
        0.00038363333442248404,
        -0.0005853627226315439,
        0.0006730071036145091,
        0.0016389613738283515,
        7.376635767286643e-05,
        4.0881146560423076e-05,
        0.0017625860637053847,
        -0.0028492012061178684,
        0.016645381227135658,
        1.6078007547548623e-06,
        0.0004736099508590996,
        0.001807720516808331,
        1.9763569980568718e-07,
        0.0007861039484851062,
        -2.7347219599960226e-08,
        0.00013201622641645372,
        -9.509838127996773e-05,
        -2.1714458853239194e-07,
        -0.00040970032569020987,
        -0.016165511682629585
      ],
      [
        -0.001662589143961668,
        0.0007288295892067254,
        -0.0009694573818705976,
        -0.026640359312295914,
        0.03454778715968132,
        -0.0011950896587222815,
        0.0011296672746539116,
        0.0006762004923075438,
        -0.0008641190943308175,
        0.0014816065086051822,
        0.034112703055143356,
        -0.007596002425998449,
        -0.003426076378673315,
        0.029630467295646667,
        0.014193616807460785,
        0.001140076550655067,
        0.0001163860724773258,
        -0.00010660011321306229,
        -1.631888835618156e-06,
        0.00022107409313321114,
        0.000502196082379669,
        0.00023268199583981186,
        0.01087567675858736,
        -0.001552049070596695,
        0.000507867312990129,
        -0.000910226022824645,
        -0.00014034048945177346,
        -0.01490516122430563,
        0.03454221412539482,
        1.0432329872855917e-05,
        -0.006109414156526327,
        -0.0016455380246043205,
        -6.43268067506142e-05,
        0.0018484670436009765,
        7.449344411725178e-05,
        0.0008166122133843601,
        -0.0002797924680635333,
        0.00030029474874027073,
        -0.0021033722441643476,
        -0.03151700645685196
      ],
      [
        -0.013005086220800877,
        -0.028813188895583153,
        -0.013283411972224712,
        0.0018678081687539816,
        -0.001580993179231882,
        -0.005032807122915983,
        0.00559496833011508,
        -0.024064654484391212,
        -0.008088496513664722,
        -0.007425208576023579,
        -0.024926694110035896,
        0.0008924648864194751,
        -0.0003838843840640038,
        0.0021807842422276735,
        0.012647080235183239,
        -0.014493129216134548,
        -0.003725052112713456,
        -0.004013995639979839,
        -3.149555413983762e-05,
        -0.00284934276714921,
        9.877487900666893e-05,
        -0.0011712461709976196,
        -0.0043707359582185745,
        0.01800038479268551,
        0.0015733469044789672,
        0.007757008075714111,
        0.0179732758551836,
        0.01984090358018875,
        -0.004070491995662451,
        -0.006060298532247543,
        0.0073617324233055115,
        0.012521724216639996,
        -0.0025077422615140676,
        -0.0008860222878865898,
        0.0030648941174149513,
        -0.00530435424298048,
        0.0009101376635953784,
        -0.009508846327662468,
        -0.004476511385291815,
        0.010605922900140285
      ],
      [
        -0.007591966539621353,
        -0.022942211478948593,
        -0.008660662919282913,
        0.0011065286817029119,
        0.0009040780714713037,
        -0.007005333434790373,
        0.0029981930274516344,
        -0.018620433285832405,
        -0.0022535875905305147,
        -0.007296932395547628,
        -0.025229349732398987,
        -0.0017344566294923425,
        -0.00016985823458526284,
        0.006849460303783417,
        0.009229592978954315,
        -0.009585484862327576,
        -0.0014269157545641065,
        -0.0033131057862192392,
        3.7523514038184658e-06,
        -0.0003631297149695456,
        1.2985317880520597e-05,
        -0.002567028859630227,
        -6.241118535399437e-05,
        0.011592133902013302,
        0.0027514270041137934,
        0.006273762788623571,
        0.012124372646212578,
        0.016309799626469612,
        0.0009783483110368252,
        -0.003652527928352356,
        0.0032260657753795385,
        0.008082198910415173,
        -0.001987470779567957,
        -0.0004844642535317689,
        0.0024285390973091125,
        -0.0019476475426927209,
        -0.00023712622351013124,
        -0.005281459074467421,
        -0.0006973246345296502,
        0.006792769767343998
      ],
      [
        8.968929250841029e-06,
        -0.00867208931595087,
        -0.00045257608871906996,
        -0.0037219382356852293,
        0.0006802473799325526,
        0.02439725212752819,
        -0.009096848778426647,
        -0.005680058151483536,
        0.013238477520644665,
        0.014595107175409794,
        -0.00894062127918005,
        -0.0013323230668902397,
        -0.0003416616527829319,
        0.003329857951030135,
        -0.01731131225824356,
        -0.0022178473882377148,
        0.0042245229706168175,
        0.01968006230890751,
        -0.0002737970498856157,
        0.002321244217455387,
        -0.006230806931853294,
        -0.001887134974822402,
        0.00036612030817195773,
        -6.519461749121547e-05,
        0.002956958254799247,
        -0.0007257128600031137,
        -0.0010744892060756683,
        0.00320246210321784,
        0.002874011406674981,
        0.011056183837354183,
        0.010870380327105522,
        0.000495164655148983,
        0.0006021758308634162,
        -0.0005246581858955324,
        0.0013552047312259674,
        0.0008334508165717125,
        -0.0025802513118833303,
        0.0012882986338809133,
        0.0024852952919900417,
        -0.0026825210079550743
      ],
      [
        0.0031546561513096094,
        0.0018800999969244003,
        0.0037688841111958027,
        -0.013774971477687359,
        0.0026533142663538456,
        0.04565399885177612,
        -0.02714192494750023,
        -0.0017111498164013028,
        0.03402063250541687,
        0.034861981868743896,
        0.017656810581684113,
        -0.0014033836778253317,
        -0.00037539328332059085,
        0.0009989622049033642,
        -0.03146195039153099,
        0.006834088359028101,
        0.014826544560492039,
        0.031533025205135345,
        -0.00153837981633842,
        -0.00022266451560426503,
        -0.011163976974785328,
        -0.0006993181887082756,
        -0.00936401728540659,
        -0.004631590098142624,
        0.0003617375041358173,
        -0.013998902402818203,
        -0.01162299606949091,
        -0.009285999462008476,
        0.002761875046417117,
        0.031794317066669464,
        0.012465205043554306,
        -0.00038880796637386084,
        0.009036469273269176,
        -0.0013610845198854804,
        0.0010488164843991399,
        -0.005262421909719706,
        -0.01282196119427681,
        -0.0001341773895546794,
        0.0028736956883221865,
        -0.013188276439905167
      ],
      [
        0.03933072090148926,
        0.013904706574976444,
        0.007267991546541452,
        -0.0557115264236927,
        0.02066441997885704,
        0.02444126270711422,
        -0.04654863849282265,
        0.01250886544585228,
        0.021833568811416626,
        0.03112560324370861,
        0.08786367624998093,
        -0.03630617633461952,
        -0.005083753727376461,
        0.029802672564983368,
        -0.011746937409043312,
        0.01494718436151743,
        0.03891732916235924,
        0.0076448023319244385,
        -0.0038851459976285696,
        -1.6854522982612252e-05,
        0.012153849005699158,
        -0.03426949307322502,
        0.020471392199397087,
        -0.05316515639424324,
        0.006476534530520439,
        -0.017796721309423447,
        -0.03635939955711365,
        -0.052582912147045135,
        0.05089620500802994,
        0.025207433849573135,
        -0.026881279423832893,
        -0.027817165479063988,
        0.0014025463024154305,
        0.007794689852744341,
        0.0001412467536283657,
        0.002524295821785927,
        -0.033576056361198425,
        0.0022405930794775486,
        0.03829868510365486,
        -0.07086990773677826
      ],
      [
        0.012903527356684208,
        0.011075382120907307,
        0.0070630949921905994,
        -0.04199352115392685,
        0.01219910103827715,
        -0.030426928773522377,
        -0.012210777960717678,
        0.015718840062618256,
        0.0010122561361640692,
        -0.005040980875492096,
        0.058272585272789,
        -0.051870618015527725,
        -0.014217603020370007,
        0.029669059440493584,
        0.0424954853951931,
        -0.0022917871829122305,
        0.01751215197145939,
        -0.0003940919414162636,
        -0.0007351610693149269,
        -2.5764204110600986e-05,
        0.005316651426255703,
        -0.010508215986192226,
        0.03154505416750908,
        -0.04897249490022659,
        0.02666931413114071,
        0.017237909138202667,
        -0.02366364188492298,
        -0.037407778203487396,
        0.04539702087640762,
        0.000698610208928585,
        -0.016903748735785484,
        -0.03111923485994339,
        -0.0015337526565417647,
        -0.0020385212264955044,
        -0.0006486914353445172,
        0.0065434761345386505,
        -0.01367002073675394,
        0.0006428157794289291,
        0.017233097925782204,
        -0.05154770612716675
      ],
      [
        -0.00196171086281538,
        0.046986572444438934,
        0.026678571477532387,
        0.029124921187758446,
        -0.004403746221214533,
        -0.04321850463747978,
        -0.02991386502981186,
        0.04280750826001167,
        0.020068975165486336,
        0.008851119317114353,
        0.022063830867409706,
        -0.03606493026018143,
        -0.00354933668859303,
        0.002800014801323414,
        -0.019227679818868637,
        -0.009866583161056042,
        -0.0025661964900791645,
        -0.015454991720616817,
        -0.02710159309208393,
        0.06277808547019958,
        -0.0024976760614663363,
        -0.001519376877695322,
        0.03900892660021782,
        -0.020364027470350266,
        0.03446545451879501,
        -0.00024780735839158297,
        -0.018471039831638336,
        0.01053973101079464,
        0.016041899099946022,
        0.002228490775451064,
        -0.002264035865664482,
        -0.0051088156178593636,
        -0.015776464715600014,
        -0.004182575270533562,
        0.011871966533362865,
        0.02290489710867405,
        -0.04255688190460205,
        0.12793052196502686,
        0.0012348038144409657,
        0.055871862918138504
      ],
      [
        -0.01896776631474495,
        0.07975904643535614,
        0.06530241668224335,
        -0.0033584414049983025,
        0.025245390832424164,
        -0.11680139601230621,
        -0.01419881358742714,
        0.07269712537527084,
        -0.009260373190045357,
        -0.10729122906923294,
        0.1045505478978157,
        -0.0367065854370594,
        -0.0012963020708411932,
        0.05364801362156868,
        0.15444470942020416,
        -0.07545975595712662,
        -0.02717720717191696,
        -0.05742206797003746,
        -0.047548215836286545,
        0.08600874245166779,
        0.008331487886607647,
        0.0008370167342945933,
        0.08582763373851776,
        -0.021105246618390083,
        0.07147830724716187,
        0.05208646506071091,
        -0.014057863503694534,
        -0.032095883041620255,
        0.07918889075517654,
        -0.009410711005330086,
        -0.10616757720708847,
        -0.002108621411025524,
        -0.0404030941426754,
        -0.0017150124767795205,
        0.017129383981227875,
        0.03805990889668465,
        -0.04471990838646889,
        0.25438567996025085,
        -0.01862316206097603,
        0.025043098255991936
      ],
      [
        -0.06179412454366684,
        -0.031370293349027634,
        0.013509237207472324,
        -0.006939003709703684,
        0.04489311948418617,
        -0.04045536741614342,
        0.09196793287992477,
        0.0032394665759056807,
        -0.1064489409327507,
        -0.07574938982725143,
        0.023037126287817955,
        -0.011608254164457321,
        -0.0035406267270445824,
        0.08803779631853104,
        0.08042994886636734,
        -0.10825121402740479,
        -0.043252695351839066,
        -0.021226326003670692,
        0.001891356660053134,
        -0.10093417763710022,
        0.01781141571700573,
        0.00020936928922310472,
        0.05142467841506004,
        0.034017566591501236,
        0.012947727926075459,
        0.0682319700717926,
        0.03760343790054321,
        0.03804105892777443,
        0.06406696140766144,
        -0.020705945789813995,
        -0.03690337762236595,
        0.01763356663286686,
        -0.015861347317695618,
        0.0003212669398635626,
        0.0009334899368695915,
        0.021087948232889175,
        0.025942323729395866,
        0.05398587882518768,
        -0.0537111833691597,
        0.07416041940450668
      ],
      [
        -0.00044236393296159804,
        -0.015619631856679916,
        0.004901287145912647,
        0.0010299611603841186,
        0.032428842037916183,
        -0.01068787556141615,
        -0.01611500233411789,
        -0.002009723335504532,
        -0.03983885049819946,
        0.001795428805053234,
        0.021270405501127243,
        -0.006145162507891655,
        -0.0032682933378964663,
        0.038542184978723526,
        0.021864401176571846,
        0.008745585568249226,
        0.02571570873260498,
        0.010945746675133705,
        0.009041973389685154,
        -0.04117639362812042,
        0.009311922825872898,
        -0.004952569026499987,
        0.012378687970340252,
        -0.011912830173969269,
        -0.010349602438509464,
        0.004090606234967709,
        0.0023694182746112347,
        0.012302134186029434,
        0.021972766146063805,
        -0.005608718376606703,
        -0.0010223137214779854,
        0.008037088438868523,
        -0.0014850478619337082,
        -0.0006192986038513482,
        5.589423017227091e-05,
        0.011205230839550495,
        0.020593363791704178,
        -0.002362852217629552,
        0.000146168953506276,
        0.013047670014202595
      ],
      [
        0.001907962840050459,
        0.0006730525637976825,
        0.0002940909471362829,
        -0.005095412023365498,
        0.0008187726489268243,
        0.0005492627387866378,
        -0.011575868353247643,
        0.00011667942453641444,
        0.004582563880831003,
        -0.0018284369725733995,
        0.012692930176854134,
        -0.0029166226740926504,
        -0.0010056159226223826,
        0.0005285065853968263,
        -0.0028630418237298727,
        0.014221010729670525,
        0.006047356408089399,
        -0.00028083333745598793,
        -0.0008525948505848646,
        -3.6117966374149546e-05,
        0.002198166446760297,
        0.000259154912782833,
        0.0026121882256120443,
        -0.007992875762283802,
        0.001633077277801931,
        0.001315305707976222,
        -0.004136183764785528,
        -0.0057984828017652035,
        0.002820721361786127,
        7.741675653960556e-05,
        -0.002937502460554242,
        -6.517814472317696e-05,
        -1.1768795957323164e-05,
        -0.0006985122454352677,
        0.00022356017143465579,
        0.0029801710043102503,
        -8.912616613088176e-05,
        0.0003229430876672268,
        0.0027179140597581863,
        -0.0005467981682159007
      ],
      [
        0.004205895122140646,
        0.004676131531596184,
        0.0007461602799594402,
        -0.003275043796747923,
        0.003433995647355914,
        -0.0011783362133428454,
        -0.002194152446463704,
        0.00515231816098094,
        0.009094757959246635,
        -0.0049989004619419575,
        0.012626145966351032,
        -0.0032290536910295486,
        -0.001417574007064104,
        0.004634971730411053,
        0.00889422558248043,
        0.002018823754042387,
        0.006920373532921076,
        -0.002152500208467245,
        -0.0009363266872242093,
        1.002699264063267e-05,
        0.0022134818136692047,
        -0.0003627395781222731,
        0.0045417798683047295,
        -0.010897462256252766,
        0.0002027953159995377,
        0.002696145325899124,
        -0.008618785999715328,
        -0.005915808957070112,
        0.0073022982105612755,
        2.7471403882373124e-05,
        -0.004694928415119648,
        -0.00012642696674447507,
        -0.0025650030001997948,
        -0.0002451562322676182,
        0.00011092723434558138,
        0.002493217820301652,
        -0.0011102712014690042,
        0.0017657687421888113,
        0.00261239567771554,
        -0.000808088865596801
      ],
      [
        0.017087524756789207,
        0.008881409652531147,
        0.0018239967757835984,
        -0.0019921481143683195,
        0.018934341147542,
        -0.0006594144506379962,
        -0.005618059542030096,
        0.005978418979793787,
        0.03096899576485157,
        -0.0064564966596663,
        0.02762136049568653,
        -0.0026356016751378775,
        -0.001009916770271957,
        0.004238048102706671,
        0.008041835390031338,
        0.001168970949947834,
        0.024557853117585182,
        -0.0014832058222964406,
        -0.0008369889110326767,
        3.30746806866955e-05,
        0.001463468768633902,
        -0.00029407773399725556,
        0.007474456913769245,
        -0.03168480843305588,
        0.00015605495718773454,
        2.325460809515789e-05,
        -0.02686965838074684,
        -0.004671026021242142,
        0.013079410418868065,
        3.4661798054003157e-06,
        -0.004643351770937443,
        -0.00026137265376746655,
        -0.0018238699994981289,
        -0.000143913333886303,
        6.705706618959084e-05,
        0.0018536148127168417,
        -0.0008448863518424332,
        0.0012417184188961983,
        0.004304849077016115,
        -0.002786856610327959
      ],
      [
        0.0009976349538192153,
        -0.0003391424543224275,
        0.001759090693667531,
        0.0005978142144158483,
        0.0005484913126565516,
        9.664070239523426e-05,
        4.848272510571405e-05,
        -5.5637101468164474e-05,
        0.0018709150608628988,
        0.0008875824278220534,
        0.002964010462164879,
        1.2134216831327649e-06,
        7.722093755546666e-07,
        0.00011236776481382549,
        -0.0019264998845756054,
        0.00021657274919562042,
        0.0013014529831707478,
        6.342463893815875e-05,
        4.527191777015105e-06,
        -1.3770431905868463e-05,
        -0.00015269083087332547,
        -1.277398268939578e-06,
        -0.0001770721428329125,
        -0.0016214081551879644,
        -4.994258051738143e-05,
        -0.0010440624319016933,
        -0.0012319294037297368,
        -3.565681981854141e-05,
        -0.00011538841499714181,
        -3.345719051139895e-06,
        -3.2124464723892743e-06,
        0.000218492146814242,
        6.343786026263842e-06,
        -2.0357128960313275e-06,
        -7.51918776131788e-07,
        -6.9104021349630784e-06,
        -3.1653653422836214e-05,
        5.949549972683599e-07,
        5.991884245304391e-05,
        -0.002255680738016963
      ],
      [
        -0.0001532218884676695,
        -0.0003027705824933946,
        0.0028855223208665848,
        0.0002857480722013861,
        -0.0006445635226555169,
        1.1694305612763856e-05,
        0.00038890287396498024,
        -0.0002976352989207953,
        -0.0006472697132267058,
        0.0002500416594557464,
        0.001604885095730424,
        1.0436849152029026e-05,
        5.825053221997223e-07,
        0.000860483618453145,
        -0.0007932725711725652,
        0.00018593315326143056,
        -0.0006827727775089443,
        0.00011329167318763211,
        1.3129688340995926e-06,
        -7.990081030584406e-06,
        -0.0001204067375510931,
        -3.0049861834413605e-06,
        -0.000432624394306913,
        0.0006035679252818227,
        -4.291818186175078e-05,
        -0.0007099484209902585,
        0.0002906590234488249,
        4.526176053332165e-05,
        -0.000525806040968746,
        -2.236175760117476e-07,
        5.086542296339758e-05,
        0.0002727094106376171,
        4.44482338934904e-06,
        2.5631914013501955e-06,
        -1.054905510500248e-06,
        -1.0807231774379034e-05,
        2.2527507098857313e-05,
        -2.0306809744852217e-07,
        -0.00015764911950100213,
        -0.0029773700516670942
      ],
      [
        -1.2830875675717834e-05,
        -2.0712370314868167e-05,
        -0.0004235660599078983,
        0.0002009520394494757,
        -0.00011022543912986293,
        2.6621691517902946e-07,
        3.8960290112299845e-05,
        -2.475518522260245e-05,
        -0.0001172310730908066,
        0.0002444578567519784,
        -0.0003351412888150662,
        4.562045432976447e-06,
        4.668177666644624e-07,
        -0.00030044460436329246,
        -7.490588177461177e-05,
        1.4891465980326757e-05,
        -0.00010046120587503538,
        9.200758540828247e-06,
        4.904617512124787e-08,
        -5.649135346175171e-07,
        -9.094311280932743e-06,
        3.31954879584373e-07,
        -4.504356547840871e-05,
        0.00014881929382681847,
        -3.6484882457443746e-06,
        -9.580168261891231e-05,
        2.032730117207393e-05,
        6.003438102197833e-06,
        -0.00017247203504666686,
        -1.6521912726830124e-08,
        3.944285708712414e-06,
        2.3693186449236237e-05,
        2.8997115464335366e-07,
        2.3697900815022876e-06,
        -8.099510750980699e-08,
        -1.2530091453299974e-06,
        2.375065832893597e-06,
        -2.630461715114052e-08,
        -1.3653917449119035e-05,
        0.00041171294287778437
      ],
      [
        -2.0356097739291276e-30,
        -4.36824835048053e-30,
        -4.8723424578306606e-30,
        5.3618258286769064e-30,
        -4.149786957159871e-30,
        -7.644362955205302e-31,
        4.721952531772899e-30,
        3.385983077600083e-30,
        -1.4271169099773837e-31,
        5.3607308321792284e-30,
        -3.9051342331492184e-31,
        3.871431775676115e-30,
        -1.6194582545854833e-30,
        1.65541502810482e-30,
        4.0752997357697334e-30,
        2.6110434109165377e-30,
        -3.1909995978495275e-30,
        2.2310820712505293e-30,
        -2.7225000236795844e-30,
        -1.7221135179659572e-30,
        4.956786962728196e-32,
        -8.954566137445382e-31,
        3.987735374825568e-30,
        -1.9550949936661655e-30,
        4.4126530727608085e-30,
        -1.533383762201324e-30,
        -1.7054166081277813e-31,
        -1.0206351012031516e-30,
        3.636498415116253e-30,
        -1.8824524520508863e-30,
        5.223875830195479e-30,
        -4.079154604924046e-30,
        1.2473440450078242e-30,
        -4.148228345690229e-31,
        5.055854993508152e-30,
        3.412399538968146e-30,
        3.759566090878982e-30,
        -2.6423296162416392e-30,
        -2.1469134783870193e-30,
        -4.3944451354643116e-30
      ],
      [
        4.566609354639417e-30,
        2.618733212840973e-30,
        -2.4485445764916338e-30,
        -4.4644624690557864e-30,
        -2.9108804225231532e-30,
        4.83176853058039e-30,
        7.941093464381112e-31,
        -1.9236297370415468e-30,
        -4.561434922546645e-30,
        2.559161416090453e-30,
        -1.1640422146588365e-30,
        -1.8921076805298963e-30,
        2.9962128488335253e-30,
        -2.937325471913828e-30,
        3.915596885187921e-30,
        -1.6595403549993697e-31,
        -4.2558737236492654e-30,
        -5.479408929917343e-31,
        -2.1288601421075426e-30,
        -3.5073170402546714e-30,
        3.6352352759066334e-30,
        -5.303206088311004e-31,
        4.548342736664927e-30,
        -4.169399092988086e-30,
        -3.341864611704117e-30,
        3.0030717173112513e-30,
        -4.244802259576385e-30,
        -4.6551062117422025e-30,
        -2.245288249618635e-33,
        4.2896640140602626e-30,
        -3.6602768790819746e-30,
        4.6876438953729634e-30,
        5.351141807542057e-32,
        -9.46545479022236e-31,
        2.649062283645861e-30,
        8.26576782526467e-31,
        4.2594460980011884e-32,
        1.5474902586484799e-30,
        -2.984424051087999e-31,
        3.4055466890214965e-30
      ],
      [
        -7.399588355940356e-31,
        -5.966243206694575e-31,
        -1.5283936476227613e-30,
        -4.5081265358554985e-30,
        -4.280929996994105e-30,
        -5.182772272210502e-30,
        2.8595829775278453e-30,
        -1.3624416809928818e-30,
        2.900601899919563e-30,
        -9.72144172480319e-31,
        -3.492322246236486e-30,
        6.474641692238773e-31,
        -5.330404958718975e-30,
        -5.353309231045877e-30,
        1.2858316108447072e-30,
        2.8472517596690754e-30,
        -2.6671009497558394e-30,
        4.36194055375447e-30,
        -1.7089366964909797e-30,
        2.4021242105381136e-30,
        9.058074527605908e-31,
        4.769973262755403e-30,
        -4.002425104549828e-30,
        -4.872772030486225e-30,
        -5.2313561120068236e-30,
        -4.628289141899379e-30,
        -7.5825648661938725e-31,
        4.6650785415772904e-30,
        -5.293694552261439e-30,
        2.1587459104828484e-30,
        -2.2968926396988295e-30,
        -9.536570317656148e-31,
        1.6750151268708827e-30,
        4.216189034365505e-30,
        3.7880375044513784e-30,
        5.822668326685141e-31,
        4.8924345715122036e-30,
        -4.179271364744032e-30,
        -4.585961188998586e-30,
        -3.837124831988044e-31
      ],
      [
        5.285577434630593e-31,
        -4.503650253367567e-30,
        3.169895618630797e-30,
        -4.644210789703301e-30,
        9.153188947706083e-32,
        1.3422543992886963e-30,
        -5.1680671200003594e-30,
        3.827540885486468e-30,
        -1.4298789455436239e-30,
        2.441435938974245e-30,
        4.805702084410228e-31,
        -3.867344816917176e-30,
        -3.552476712026822e-30,
        -1.2451430493853445e-30,
        -5.049874454409361e-30,
        4.387193557833863e-30,
        -1.881275453067295e-30,
        4.808494118592301e-30,
        -4.168278141575142e-30,
        -3.302612128183267e-30,
        3.612783521885024e-30,
        5.145957858012805e-31,
        3.697613965087821e-30,
        -4.7606663567624284e-30,
        2.1291655825596602e-30,
        -5.030201757112191e-30,
        -2.6736032202673e-30,
        4.641763504504437e-30,
        8.314695661727816e-31,
        -3.485643557532854e-30,
        6.061845692049212e-32,
        2.4137552099219857e-30,
        4.3808142910512725e-30,
        5.016540443885579e-30,
        -5.1023970466368695e-30,
        -4.5278154079549354e-30,
        -3.771599015291287e-30,
        -5.154882399203344e-30,
        1.4534587979838305e-30,
        2.913623556140232e-31
      ],
      [
        -1.1955095401535126e-30,
        -4.035184345355832e-31,
        2.4787090780874066e-30,
        4.649623706089967e-30,
        5.355262620538299e-31,
        -3.622741933866998e-30,
        1.1244636019852942e-30,
        4.49019921257043e-30,
        -4.343168003011386e-30,
        -5.495214156760759e-31,
        -2.212743418982221e-30,
        -2.583462175706132e-30,
        1.1093292532777794e-30,
        1.605461408251372e-30,
        4.362719577370647e-30,
        -4.8804992601507905e-31,
        -4.002547355962313e-30,
        -4.712294482107447e-31,
        -2.7494211012625684e-30,
        7.857035273947031e-31,
        -1.9609916494880824e-30,
        -3.342008304133562e-30,
        7.653190447582237e-31,
        -2.7049332480218e-30,
        -1.7659062308674233e-30,
        -1.6181322969577558e-30,
        -9.320963024619285e-31,
        4.276659096879149e-30,
        -1.589000161520649e-30,
        2.872005413748239e-30,
        4.2307941284965056e-30,
        3.664554173886199e-30,
        -4.524317889083273e-30,
        -1.420414053109899e-30,
        3.144551772347972e-31,
        -3.4548245406825436e-30,
        -4.3201147720403476e-30,
        -4.047066054174847e-30,
        2.8871905438117095e-30,
        -2.4264524297018278e-30
      ],
      [
        1.1959343167921258e-30,
        -2.351720705486719e-30,
        4.376452360653789e-30,
        4.114991948217339e-31,
        -3.5822135217579914e-30,
        2.6038512662804667e-30,
        1.6397882883236327e-31,
        -5.2438957215041074e-30,
        8.282283991091463e-31,
        2.255583699340877e-31,
        -4.2281948753879674e-30,
        1.9632260291501254e-31,
        -2.2360428454900955e-30,
        -4.846349926745278e-30,
        2.359538777354716e-30,
        -3.76777499110874e-30,
        -2.7999022829806652e-30,
        2.1883965799879898e-30,
        1.7886835498044366e-30,
        1.8842256617692147e-30,
        -3.349823366736021e-30,
        4.517024181735291e-30,
        -8.586381558462747e-31,
        -3.375263697595161e-30,
        3.988494085899363e-30,
        3.604928210355993e-30,
        1.3322595940016207e-30,
        -5.349531474320978e-30,
        -3.32696423339219e-30,
        3.87171351816212e-30,
        1.6650409162448335e-30,
        -1.0341488663788488e-30,
        -1.0346146442604187e-31,
        -2.6895449925345076e-30,
        -1.357522848391753e-30,
        1.0994107140641851e-30,
        -1.1176924724059137e-30,
        1.6815945098117571e-31,
        -3.67199232598001e-30,
        4.581001167075404e-31
      ],
      [
        -4.710445864475332e-06,
        -3.6063204333913745e-07,
        -2.1751461645180825e-06,
        3.9047667996783275e-06,
        -2.931543576778495e-07,
        2.6020468339993386e-06,
        6.908445016051701e-08,
        -9.381722065882059e-07,
        -4.346510650066193e-06,
        1.592312582943123e-05,
        -2.8040321922162548e-05,
        4.460255877347663e-05,
        2.672619903165696e-09,
        -7.472251581930323e-07,
        -8.441507088718936e-05,
        8.557995897717774e-06,
        9.886323368846206e-07,
        3.113968105594722e-08,
        1.0096902869349833e-08,
        -3.5344214534271945e-12,
        -2.815436062064691e-07,
        -2.372599823274868e-07,
        -2.7440953999757767e-05,
        2.444998790451791e-05,
        -1.6162391602847492e-06,
        -2.9456547053996474e-05,
        4.72680403618142e-06,
        1.4324154108180664e-05,
        -1.8509929304855177e-06,
        1.6771425914718918e-10,
        1.8061675746139372e-06,
        1.760464662936556e-08,
        3.7048963008601277e-08,
        2.9968708759042784e-07,
        -9.494597108528069e-09,
        -9.116918590734713e-06,
        4.640761386287551e-11,
        -4.878822679188488e-08,
        6.314514280347794e-07,
        1.417538264547602e-08
      ],
      [
        -0.00035414949525147676,
        -3.832693619187921e-05,
        -0.00029272589017637074,
        0.00013613920600619167,
        -0.00012702462845481932,
        7.744517461105715e-06,
        0.00015257325139828026,
        -7.735816325293854e-06,
        -8.228703518398106e-05,
        0.0004704219463746995,
        -0.0005099223926663399,
        6.14505381690833e-07,
        -5.915346264373511e-05,
        -0.000313722004648298,
        9.756186045706272e-07,
        0.00021910545183345675,
        -0.00019135433831252158,
        0.0006043166504241526,
        1.3050298548478168e-06,
        -3.9579384908394744e-11,
        0.0016661720583215356,
        -5.030842658015899e-06,
        -0.0005770369898527861,
        0.0004165736900176853,
        -1.6432776419605943e-06,
        -6.51006048428826e-05,
        2.750667408690788e-05,
        0.00034684810088947415,
        -0.00020267526269890368,
        5.433938667920302e-07,
        0.00010658428800525144,
        6.973524424580546e-09,
        0.0004775489214807749,
        0.0003733537159860134,
        -0.0006336964434012771,
        -0.00017533180653117597,
        7.365449710050598e-05,
        -5.765584319306072e-06,
        -9.800647239899263e-05,
        0.0006184612866491079
      ],
      [
        -0.00011846499546663836,
        -7.41416442906484e-05,
        0.00011515107325976714,
        0.00012853654334321618,
        -0.00047307147178798914,
        -0.0003530902322381735,
        5.366246841731481e-05,
        -9.713921826914884e-07,
        2.488928657840006e-06,
        0.00011502103006932884,
        0.0003242270031478256,
        -0.0002638933656271547,
        0.0003904952318407595,
        -0.0001507837587269023,
        0.0005495414952747524,
        0.00026927993167191744,
        -8.125797467073426e-05,
        0.0003036452108062804,
        -6.359440249070758e-06,
        -5.005992989026709e-07,
        -0.0006395084201358259,
        -3.0063180020079017e-05,
        -0.0001257822004845366,
        -1.0165393177885562e-05,
        1.4325759366329294e-05,
        -0.00010284782911185175,
        -0.00010202900739386678,
        -5.656826397171244e-05,
        1.165045250672847e-05,
        1.4497181837214157e-05,
        -5.071329724160023e-05,
        9.982883057091385e-06,
        0.00024075096007436514,
        0.00040279829408973455,
        -0.0006907766219228506,
        -0.00022841885220259428,
        2.5971790819312446e-05,
        -7.883963917265646e-07,
        -3.29721333400812e-05,
        0.00039246142841875553
      ],
      [
        0.00011706414807122201,
        0.001712131779640913,
        2.7850262995343655e-05,
        -0.00020899376249872148,
        0.0005236780853010714,
        -1.4377474144566804e-05,
        -2.7731863156077452e-05,
        6.287151336437091e-05,
        0.000358066608896479,
        -8.776727190706879e-05,
        0.00032299160375259817,
        5.804138254461577e-06,
        -5.304771548253484e-05,
        0.0005123779410496354,
        9.451062942389399e-05,
        4.361429455457255e-05,
        5.6209748436231166e-05,
        -4.373602132545784e-05,
        -1.1827563639599248e-06,
        5.9310332289896905e-05,
        3.3130592782981694e-05,
        -9.495451377006248e-05,
        0.0011313973227515817,
        -0.0005858971853740513,
        0.00011092074419138953,
        2.723703801166266e-06,
        -0.0008879922097548842,
        -0.0008275774307549,
        0.0003523585037328303,
        1.1000841368513647e-05,
        -0.0002724259393289685,
        -0.00019714520021807402,
        1.1618808457569685e-05,
        -5.448750744108111e-05,
        1.4540887605107855e-08,
        -3.0048702683416195e-05,
        -1.8700154669204494e-06,
        1.3422769370663445e-05,
        0.00046386109897866845,
        -0.00038290934753604233
      ],
      [
        0.0001935364562086761,
        0.010658773593604565,
        -0.00035619031405076385,
        -0.009410921484231949,
        0.019627854228019714,
        0.002153122564777732,
        -0.011351687833666801,
        0.0003500174207147211,
        0.00253554480150342,
        0.012239247560501099,
        0.02300259657204151,
        0.0060856956988573074,
        0.0014411163283511996,
        0.015296092256903648,
        -0.004229143261909485,
        0.0015480899019166827,
        0.010925551876425743,
        0.013539561070501804,
        -0.016513831913471222,
        0.00025578209897503257,
        -0.005031722132116556,
        -0.006053443998098373,
        0.00433338014408946,
        -0.0042653270065784454,
        -0.00026867870474234223,
        -0.0018908680649474263,
        -0.003885027952492237,
        -0.0044702282175421715,
        0.019548572599887848,
        0.0137857086956501,
        -0.001349175930954516,
        0.0015957506839185953,
        0.0045979940332472324,
        0.0025787297636270523,
        -0.0008587585762143135,
        -0.005555068142712116,
        -0.0008624549373053014,
        0.0002973696682602167,
        0.0015051891095936298,
        -0.024229150265455246
      ],
      [
        -0.0027127459179610014,
        -0.0031659891828894615,
        -0.004043652210384607,
        -0.038734301924705505,
        0.04303343966603279,
        -0.00976389180868864,
        -0.019198855385184288,
        -0.006165236234664917,
        0.015323054976761341,
        0.02172919735312462,
        0.05583411082625389,
        -0.013070727698504925,
        -0.017294427379965782,
        0.04746813327074051,
        0.014000419527292252,
        -0.013080565258860588,
        0.011710305698215961,
        0.02027912810444832,
        -0.044675298035144806,
        0.0024030946660786867,
        -0.011592281050980091,
        -0.008287234231829643,
        0.01955956220626831,
        -0.012021166272461414,
        0.0004367049259599298,
        0.004721949342638254,
        -0.01824050024151802,
        -0.02068869210779667,
        0.047640759497880936,
        0.033648937940597534,
        -0.021495245397090912,
        -0.008788546547293663,
        0.0093463733792305,
        -0.0062657855451107025,
        -0.0012905992334708571,
        -0.009340960532426834,
        -0.0032763236667960882,
        0.0015607797540724277,
        -0.000699771917425096,
        -0.06597404181957245
      ],
      [
        -0.012199636548757553,
        -0.04002903029322624,
        -0.012730267830193043,
        -0.04790625348687172,
        0.0319642499089241,
        -0.03189680352807045,
        -0.015175040811300278,
        -0.032847873866558075,
        0.02399454265832901,
        0.01582658290863037,
        0.015231545083224773,
        -0.009547248482704163,
        -0.036827024072408676,
        0.05892517417669296,
        0.015629123896360397,
        -0.01288507878780365,
        0.006914208643138409,
        0.01744486577808857,
        -0.038082852959632874,
        -0.008202549070119858,
        -0.016025327146053314,
        -0.00839752797037363,
        0.016735004261136055,
        0.004755748901516199,
        -0.018999770283699036,
        0.019396625459194183,
        -0.01868295669555664,
        0.004855841398239136,
        0.04493372514843941,
        0.03767750784754753,
        -0.026625709608197212,
        0.005946704652160406,
        0.005345574114471674,
        0.0029360454063862562,
        0.003626328194513917,
        -0.02040824666619301,
        0.0033007648307830095,
        -0.028884561732411385,
        -0.00387143949046731,
        -0.050011683255434036
      ],
      [
        -0.010077593848109245,
        -0.03866094350814819,
        -0.02206289954483509,
        -0.024689851328730583,
        0.013372551649808884,
        -0.018239542841911316,
        -0.12775364518165588,
        -0.03192507475614548,
        0.09315205365419388,
        0.04007169231772423,
        -0.04680575430393219,
        0.042302679270505905,
        -0.04685522988438606,
        0.04453439638018608,
        -0.041446808725595474,
        0.021741284057497978,
        0.033376071602106094,
        0.022482264786958694,
        -0.023503968492150307,
        -0.006935101002454758,
        -0.030851496383547783,
        -0.03746674582362175,
        0.0028807418420910835,
        0.00781981274485588,
        -0.060728106647729874,
        -0.021032771095633507,
        -0.035687703639268875,
        0.023155121132731438,
        0.04980429261922836,
        0.1085951179265976,
        -0.015323882922530174,
        0.014740929007530212,
        0.032547567039728165,
        0.048575934022665024,
        -0.040917105972766876,
        -0.04855474829673767,
        0.0030379900708794594,
        -0.06680560111999512,
        0.010455941781401634,
        0.01832517981529236
      ],
      [
        -0.025838280096650124,
        -0.05929563194513321,
        0.01650940254330635,
        -0.0790480449795723,
        0.06566763669252396,
        0.001189654809422791,
        -0.10323230922222137,
        -0.04100603982806206,
        0.14733193814754486,
        0.030861400067806244,
        0.01956292614340782,
        0.059313852339982986,
        -0.08002015948295593,
        0.11081981658935547,
        -0.01046036183834076,
        -0.038632966578006744,
        0.011473994702100754,
        0.06512808799743652,
        -0.029793575406074524,
        0.0010109258582815528,
        -0.06935074180364609,
        -0.05052025988698006,
        0.03555190563201904,
        -0.01471171248704195,
        -0.07084000110626221,
        -0.006893996149301529,
        -0.005527240224182606,
        0.0028692400082945824,
        0.07832865417003632,
        0.13955575227737427,
        -0.014853985980153084,
        0.028057202696800232,
        0.02226591855287552,
        0.05631870776414871,
        -0.022265153005719185,
        -0.05368269607424736,
        -0.01421537809073925,
        -0.029925720766186714,
        -0.0049753086641430855,
        -0.024495717138051987
      ],
      [
        -0.013460484333336353,
        -0.07598185539245605,
        0.03640514612197876,
        -0.03123212233185768,
        0.04679727554321289,
        0.03848595544695854,
        -0.07256873697042465,
        -0.01766364648938179,
        0.10155360400676727,
        0.06753002107143402,
        0.06599991768598557,
        0.004833762068301439,
        -0.055214788764715195,
        0.11740817129611969,
        -0.05415963754057884,
        -0.09254594892263412,
        0.04699568450450897,
        0.06462013721466064,
        -0.02529538795351982,
        -0.0009845849126577377,
        -0.12342788279056549,
        -0.07749659568071365,
        0.0370853953063488,
        0.016812128946185112,
        -0.025094179436564445,
        -0.016146831214427948,
        -0.000671337591484189,
        -0.013746269047260284,
        0.07102789729833603,
        0.12880560755729675,
        -0.02967449650168419,
        0.006735689006745815,
        0.014894291758537292,
        0.05583148077130318,
        -0.06034334748983383,
        -0.03154013678431511,
        -0.03711257129907608,
        -0.0076402174308896065,
        0.0059884944930672646,
        -0.09524627029895782
      ],
      [
        -0.02103342115879059,
        -0.17960835993289948,
        0.04199283942580223,
        -0.016206542029976845,
        0.06108549237251282,
        0.0803571343421936,
        -0.017047451809048653,
        -0.052176583558321,
        0.03461666405200958,
        0.12451639771461487,
        0.07788866013288498,
        0.028455354273319244,
        -0.03876988962292671,
        0.1752975583076477,
        -0.05599633976817131,
        -0.1915319859981537,
        0.06875654309988022,
        0.10234075784683228,
        -0.020106300711631775,
        -0.046973440796136856,
        -0.17151325941085815,
        -0.11830060184001923,
        0.05661405995488167,
        0.041103724390268326,
        -0.06003883108496666,
        -0.0061978125013411045,
        0.03844086825847626,
        0.006930280476808548,
        0.029864992946386337,
        0.12297362089157104,
        -0.016693396493792534,
        0.004638223443180323,
        0.06644666939973831,
        0.11118524521589279,
        -0.13195843994617462,
        -0.10395950824022293,
        -0.03236914053559303,
        -0.026187898591160774,
        0.0048996577970683575,
        -0.10160248726606369
      ],
      [
        -0.05633533373475075,
        -0.1308060586452484,
        0.0391535684466362,
        0.11480072885751724,
        0.10688041150569916,
        -0.024386269971728325,
        0.03679167851805687,
        -0.08638723939657211,
        -0.06037786975502968,
        0.05135192349553108,
        0.017088934779167175,
        0.0719447061419487,
        -0.04751357436180115,
        0.13263677060604095,
        -0.009140863083302975,
        -0.14729341864585876,
        0.00037405278999358416,
        0.07300587743520737,
        -0.021313829347491264,
        -0.06801103800535202,
        -0.11022632569074631,
        -0.07334648072719574,
        0.041356489062309265,
        0.06820791214704514,
        -0.05803192779421806,
        7.7937773312442e-05,
        0.06562084704637527,
        0.07417109608650208,
        -0.004230041056871414,
        0.04523126035928726,
        -0.007799637038260698,
        -0.011124839074909687,
        0.08215969055891037,
        0.1020842045545578,
        -0.08096294850111008,
        -0.07478281855583191,
        -0.019008152186870575,
        0.03279547020792961,
        -0.032154589891433716,
        -0.04998601973056793
      ],
      [
        -0.019465552642941475,
        -0.05200108140707016,
        0.06682847440242767,
        0.10613270103931427,
        0.0860113874077797,
        0.017821108922362328,
        -0.05504610762000084,
        -0.023974953219294548,
        -0.07199432700872421,
        0.03900972008705139,
        0.0028057831805199385,
        0.10617400705814362,
        -0.05467401072382927,
        0.09458698332309723,
        -0.037611447274684906,
        -0.10143914818763733,
        0.02170942910015583,
        0.02339991368353367,
        0.014419266022741795,
        -0.12346795201301575,
        -0.0961170345544815,
        -0.04599790647625923,
        0.03952539339661598,
        0.04753665626049042,
        -0.025277137756347656,
        -0.042013026773929596,
        0.04997067525982857,
        0.10406970977783203,
        -0.022518793120980263,
        -0.010539568029344082,
        0.0010804199846461415,
        -0.06282062083482742,
        0.05303986370563507,
        0.14856091141700745,
        -0.12018196284770966,
        -0.04150676354765892,
        -0.04545419663190842,
        0.10674048215150833,
        0.006315592676401138,
        -0.07676004618406296
      ],
      [
        0.0019301142310723662,
        0.02584766410291195,
        0.09467754513025284,
        -0.0074422224424779415,
        0.020012982189655304,
        0.025400005280971527,
        -0.11777656525373459,
        0.04801037535071373,
        0.005941590294241905,
        -0.1024605855345726,
        0.16669246554374695,
        0.018252911046147346,
        -0.07044711709022522,
        0.05217476934194565,
        0.06035705283284187,
        -0.1285589188337326,
        0.0561043806374073,
        0.004887494724243879,
        -0.03844059631228447,
        -0.17858503758907318,
        -0.16757111251354218,
        -0.08682864904403687,
        0.09263970702886581,
        -0.053759559988975525,
        0.002899455139413476,
        -0.04255390539765358,
        0.05598628148436546,
        0.0192266833037138,
        0.00968820322304964,
        0.024600015953183174,
        -0.16826975345611572,
        -0.03154786303639412,
        0.0086448322981596,
        0.13429097831249237,
        -0.0988602340221405,
        0.016163295134902,
        -0.05065726116299629,
        0.36821049451828003,
        0.007520133163779974,
        -0.04117271304130554
      ],
      [
        -0.0737992599606514,
        -0.03857354074716568,
        0.02122347615659237,
        0.04520685598254204,
        0.03330930694937706,
        0.07868660986423492,
        -0.02222633734345436,
        -0.023826535791158676,
        -0.015887493267655373,
        -0.06221276521682739,
        0.12228676676750183,
        0.009234953671693802,
        -0.05930812284350395,
        0.09979541599750519,
        0.030104706063866615,
        -0.1430271714925766,
        0.08131234347820282,
        -0.02290274016559124,
        -0.17429940402507782,
        -0.26128411293029785,
        -0.22576826810836792,
        -0.22572825849056244,
        0.03063950687646866,
        -0.0973411574959755,
        -0.05589679628610611,
        -0.011655289679765701,
        0.14213520288467407,
        0.038726966828107834,
        0.04676711931824684,
        0.09694776684045792,
        -0.05589858815073967,
        -0.010504007339477539,
        0.01377195119857788,
        0.13182416558265686,
        -0.09864209592342377,
        0.020792566239833832,
        0.019719526171684265,
        0.1487671583890915,
        -0.0752183198928833,
        0.1440519541501999
      ],
      [
        -0.01981002278625965,
        -0.041506849229335785,
        -0.01069097500294447,
        0.10074799507856369,
        -0.036068931221961975,
        0.1052853912115097,
        0.15902182459831238,
        -0.036882348358631134,
        0.002915710210800171,
        0.0068891411647200584,
        0.055933628231287,
        0.06518170237541199,
        0.016133032739162445,
        0.05784738436341286,
        0.05551797151565552,
        -0.11902450770139694,
        0.10170585662126541,
        -0.03186967596411705,
        -0.12848128378391266,
        -0.14665158092975616,
        -0.2721885144710541,
        -0.20443184673786163,
        -0.005549929570406675,
        -0.14580628275871277,
        -0.03490128740668297,
        -0.057799696922302246,
        0.10175246000289917,
        0.016620026901364326,
        0.07560689747333527,
        0.07726749032735825,
        0.024818988516926765,
        0.006885808426886797,
        0.04804728552699089,
        0.16285386681556702,
        -0.18667268753051758,
        -0.019309958443045616,
        0.034398384392261505,
        -0.028185173869132996,
        -0.017267290502786636,
        0.12478192150592804
      ],
      [
        0.03866957873106003,
        0.026189906522631645,
        -0.026167621836066246,
        0.022764038294553757,
        -0.029428552836179733,
        0.09813828021287918,
        0.12232416868209839,
        -0.0028095173183828592,
        0.10023259371519089,
        -0.0072881667874753475,
        0.07130872458219528,
        -0.013801045715808868,
        0.01752835139632225,
        0.050065528601408005,
        -0.07127202302217484,
        0.0033021841663867235,
        0.07210133224725723,
        0.007305201608687639,
        0.011040382087230682,
        -0.023118112236261368,
        -0.216607004404068,
        -0.054939404129981995,
        0.011639289557933807,
        -0.12742646038532257,
        0.0008329331176355481,
        -0.043695442378520966,
        -0.02501528337597847,
        -0.06823118031024933,
        0.058818068355321884,
        0.01008465513586998,
        -0.017408203333616257,
        -0.01434283796697855,
        0.03420601785182953,
        0.07411791384220123,
        -0.046017296612262726,
        0.030194707214832306,
        -0.002036506775766611,
        -0.0625707134604454,
        0.03598937764763832,
        0.026533346623182297
      ],
      [
        0.020703637972474098,
        0.05198005586862564,
        -0.003622238291427493,
        0.02361779287457466,
        -0.015191826038062572,
        -0.011697500944137573,
        0.005423365626484156,
        0.00345859513618052,
        0.0793675035238266,
        -0.062254127115011215,
        0.043820325285196304,
        -0.05363626033067703,
        0.0156474020332098,
        -0.006446287035942078,
        -0.05903250351548195,
        0.014847975224256516,
        0.052052389830350876,
        0.03340492397546768,
        0.03498418256640434,
        -0.008372366428375244,
        -0.13188345730304718,
        0.0007534298929385841,
        0.014270216226577759,
        -0.11219887435436249,
        -0.003841061145067215,
        -0.06595800071954727,
        -0.05097644031047821,
        -0.07401715964078903,
        0.04196203872561455,
        0.03411846235394478,
        -0.03839394077658653,
        -0.027592338621616364,
        0.014624077826738358,
        0.061740294098854065,
        -0.044022105634212494,
        0.010315444320440292,
        -0.002049502916634083,
        -0.04420466721057892,
        0.03098459728062153,
        0.004781350959092379
      ],
      [
        0.014840549789369106,
        0.033477503806352615,
        0.00533854216337204,
        0.010013317689299583,
        0.01115456037223339,
        -0.02825714275240898,
        0.011174701154232025,
        -0.0013013224815949798,
        0.1127055361866951,
        -0.051518864929676056,
        -0.01602105051279068,
        -0.016302134841680527,
        0.013977291993796825,
        0.0015599662438035011,
        -0.0004313427780289203,
        0.02167356014251709,
        0.03256545588374138,
        0.012679440900683403,
        0.012081651948392391,
        -0.018715497106313705,
        -0.09072259813547134,
        0.005221516825258732,
        0.02490852214396,
        -0.06578157842159271,
        -0.004328677896410227,
        -0.015458489768207073,
        -0.06713175773620605,
        -0.04895799607038498,
        0.036263614892959595,
        0.012941703200340271,
        -0.020906075835227966,
        -0.010460545308887959,
        0.0277397558093071,
        0.03189219906926155,
        -0.048784416168928146,
        0.0017429131548851728,
        -0.0012481111334636807,
        -0.01653580367565155,
        0.03845412656664848,
        0.0022054361179471016
      ],
      [
        0.022886089980602264,
        0.052619315683841705,
        0.013201314955949783,
        0.000331339193508029,
        0.020250165835022926,
        -0.013005545362830162,
        0.011348981410264969,
